,0.25444105,0.23287426,0.2151692,-0.33150905,0.2381777,0.2224293,0.25606236,-0.065435074,-0.2766316,0.27774426,-0.0883795,-0.31068695,-0.2908567,-0.37979087,-0.076344766,-0.29164532,-0.32181937,0.24245569,-0.3051021,0.24399439,0.25274494,0.22782178,0.2159182,-0.29502216,0.24236324,0.22166795,0.25519156,-0.12023467,-0.2752591,0.27759564,-0.08177803,-0.3121808,-0.28067598,-0.3420914,-0.075063094,-0.30514708,-0.31725696,0.24391332,-0.31719482,0.24696882,0.2510371,0.22657686,0.21059379,-0.3187563,0.24375942,0.22253457,0.23999232,0.020725237,-0.28828782,0.26866895,-0.08335676,-0.31610373,-0.28647026,-0.33639342,-0.07641494,-0.28797585,-0.2980727,0.24064402,-0.29510844,0.23937505,0.25176546,0.23240568,0.21297257,-0.31168154,0.24096642,0.22590607,0.25389853,-0.0584,-0.27594724,0.27813414,-0.08229478,-0.3223845,-0.27656952,-0.33496776,-0.07688471,-0.29602426,-0.31333944,0.23965228,-0.31063125,0.2525149,0.25374624,0.21994163,0.21311802,-0.3244072,0.23848024,0.2245676,0.25272998,-0.08035832,-0.2863293,0.2785714,-0.08258811,-0.30167156,-0.2768235,-0.3281965,-0.075401045,-0.29682764,-0.3144507,0.2385691,-0.31616628,0.24749576,0.2451992,0.22961628,0.21287684,-0.30640778,0.22709994,0.2239031,0.24614885,-0.0026614335,-0.28375128,0.27576932,-0.08252433,-0.29879093,-0.2914146,-0.3403532,-0.075847715,-0.29115856,-0.28754458,0.24546917,-0.30368093,0.24100551,0.24896987,0.22972016,0.21766269,-0.3001342,0.24200314,0.22055067,0.25647753,-0.10171402,-0.28499788,0.27248046,-0.0822014,-0.31264988,-0.26972517,-0.3387254,-0.085151434,-0.2939305,-0.2942773,0.2476086,-0.29314813,0.25247797,0.25293174,0.23402339,0.21470486,-0.31594005,0.23730066,0.22347009,0.24674511,0.018044677,-0.27985606,0.27569652,-0.08112481,-0.30915108,-0.27911857,-0.34031713,-0.07498287,-0.2910611,-0.3073369,0.2435564,-0.30191872,0.24284792,0.25483194,0.21385826,0.20919456,-0.30208373,0.22860314,0.21436515,0.25624964,-0.09049431,-0.27384695,0.27922347,-0.08340655,-0.3068941,-0.2680914,-0.35757115,-0.075872526,-0.29864213,-0.29307738,0.24224882,-0.30798548,0.25010434,0.25365734,0.23153372,0.21302994,-0.2893196,0.24300078,0.22011214,0.24978542,-0.101376295,-0.27676016,0.2755356,-0.08309661,-0.30166736,-0.2780563,-0.3335736,-0.075578354,-0.26261365,-0.30821693,0.23977347,-0.30259094,0.24947517,-0.6804696,7.979173e-05,-0.9814741,0.00011057588,-0.90203685,0.00022704646,-0.0002289236,-1.0372245,-1.0004852,0.00010602466,-0.87044626,0.00031062966,-0.7849349,0.00019006536,-0.19298452,-0.026896834,-0.00032740968,-1.1058556,-0.8979558,0.00018226865,-3.0010644e-05,-0.10398392,-0.00033279043,-1.0149006,-0.0002553221,-1.1471648,-0.00012174167,-0.8732714,-0.0001432952,-0.07574718,-0.0003714824,-1.0683335,-0.00039253465,-1.0804759,-0.956126,0.00022395104,-0.00028678213,-1.0337454,-0.71179384,0.00019648518